svm_type c_svc
kernel_type rbf
gamma 0.125
nr_class 2
total_sv 117
rho 23.6548
label 1 0
probA -0.772244
probB 0.314825
nr_sv 53 64
SV
772.1662306594283 1:0.66666667 2:1 3:0.66666667 6:0.625 8:1 10:0.21977039 
969.7842356865178 1:0.38888889 3:1 4:1 6:0.625 9:1 10:0.35554949 
389.9945326155212 1:0.61111111 2:1 3:1 6:0.25 9:1 10:0.12436123 
467.0370598399056 1:0.77777778 2:1 3:0.33333333 4:1 5:0.5 6:0.125 9:0.5 10:0.40721335 
333.5261257686701 1:0.055555556 3:0.66666667 4:1 7:1 8:1 10:0.28604574 
144.726252716314 1:0.55555556 3:0.66666667 4:1 6:0.5 7:1 8:1 10:0.15659083 
388.2557555501395 1:0.88888889 3:1 4:1 6:0.25 10:0.35878409 
584.071521331522 1:0.16666667 2:1 3:1 4:1 5:1 6:0.5 7:1 8:1 9:1 10:0.47866838 
246.786516709601 3:0.33333333 4:1 5:1 6:0.25 8:1 10:0.30792856 
42.74792249724932 1:0.27777778 2:1 3:0.33333333 4:1 5:0.5 6:0.125 8:1 9:1 10:0.39204596 
234.3423369796663 1:0.66666667 3:0.66666667 6:0.875 8:1 9:1 10:0.095071035 
188.8129188973882 1:0.61111111 3:0.66666667 4:1 5:1 6:1 7:1 10:0.4273855 
522.3015641310016 1:0.38888889 2:1 3:1 4:1 5:0.5 6:0.125 10:0.46682875 
772.489426489713 1:0.38888889 2:1 3:0.66666667 5:0.5 6:1 7:1 9:0.5 10:0.07488114 
848.4444228329486 1:0.83333333 3:0.66666667 4:1 5:1 6:0.75 8:1 9:0.5 10:0.46513598 
1101.582304376908 1:0.61111111 2:1 3:0.66666667 4:1 5:1 6:0.625 7:1 8:1 10:0.42603068 
202.5560920771075 1:0.88888889 3:0.33333333 5:1 6:0.875 9:0.5 10:0.02235658 
534.0344894142957 1:0.55555556 2:1 3:0.66666667 5:0.5 7:1 8:1 9:0.5 10:0.42181227 
2048 1:0.16666667 2:1 3:0.66666667 4:1 6:0.5 7:1 9:0.5 10:0.32059376 
116.2861587519615 2:1 3:1 5:1 6:0.625 8:1 10:0.11502574 
550.2871026941617 1:0.61111111 3:1 4:1 5:0.5 6:0.5 7:1 8:1 9:0.5 10:0.44272292 
143.4966531374039 1:0.11111111 3:0.33333333 4:1 5:1 6:0.125 7:1 9:1 10:0.11118145 
563.1346238313132 1:1 2:1 3:0.66666667 4:1 5:0.5 6:0.75 9:0.5 10:0.36245876 
85.14855926886578 1:0.38888889 2:1 3:1 4:1 5:0.5 6:0.75 9:0.5 10:0.22903485 
1138.04027734669 1:0.61111111 3:0.33333333 5:0.5 9:0.5 10:0.15317178 
168.8350093333687 1:0.88888889 3:1 5:1 6:0.625 7:1 8:1 9:1 10:0.40335901 
227.6309118398303 2:1 3:0.66666667 4:1 5:0.5 8:1 9:0.5 10:0.26092924 
843.636616418514 1:0.55555556 2:1 3:0.33333333 4:1 5:1 6:0.125 7:1 9:0.5 10:0.39288189 
341.6635066702335 1:0.94444444 3:0.33333333 4:1 5:1 6:0.875 9:0.5 10:0.39338691 
180.7346968371924 1:0.83333333 4:1 5:0.5 6:1 7:1 8:1 9:1 10:0.28671245 
195.3441727722358 1:0.5 3:0.33333333 5:1 6:0.875 8:1 9:1 10:0.24635332 
1922.564619436736 1:0.22222222 3:0.66666667 4:1 5:0.5 6:0.25 9:1 10:0.31770741 
381.6719988800969 1:0.83333333 2:1 3:0.66666667 5:0.5 6:0.375 9:0.5 10:0.1844922 
38.16051001368562 1:1 3:0.66666667 5:1 6:0.875 7:1 9:0.5 10:0.055148104 
243.105038058612 1:0.72222222 2:1 3:0.66666667 5:0.5 6:1 7:1 8:1 10:0.17964639 
418.3745043972356 1:0.66666667 2:1 3:0.66666667 4:1 5:1 6:0.75 9:1 10:0.42694925 
115.840722319865 1:0.44444444 3:0.33333333 4:1 5:0.5 6:0.375 7:1 9:0.5 10:0.25083396 
397.1752665123744 1:0.055555556 3:1 4:1 5:1 6:0.25 8:1 10:0.41995141 
270.2894607685347 1:0.16666667 3:0.33333333 5:0.5 7:1 9:0.5 10:0.1988846 
2033.530914357541 1:0.72222222 2:1 3:0.33333333 5:1 6:0.125 10:0.44747189 
1130.799982502596 1:0.22222222 3:0.66666667 5:0.5 6:0.5 9:1 10:0.19933701 
132.1119844453319 3:0.33333333 5:1 9:0.5 10:0.12518116 
165.7571062199609 1:0.5 3:0.66666667 5:0.5 8:1 9:1 10:0.38366834 
158.0332100033933 2:1 3:0.66666667 4:1 5:1 6:0.5 7:1 8:1 9:0.5 10:0.27857457 
314.4662253647469 1:0.33333333 2:1 3:0.33333333 5:0.5 6:0.375 8:1 9:0.5 10:0.25695527 
692.9402568410595 1:0.66666667 2:1 3:0.33333333 4:1 5:0.5 6:1 8:1 9:1 10:0.32387833 
858.4549487639129 1:0.94444444 2:1 4:1 5:1 6:0.75 7:1 9:1 10:0.41345256 
1316.515850920304 1:0.77777778 2:1 3:0.66666667 4:1 5:1 6:0.25 8:1 10:0.41465737 
120.629222340954 1:0.33333333 2:1 3:0.33333333 4:1 5:1 6:0.875 8:1 9:1 10:0.30038675 
2048 1:0.5 3:1 4:1 5:0.5 6:0.875 9:0.5 10:0.47088086 
92.840084185937 1:1 3:1 5:1 6:0.125 10:0.06782451 
628.9994605776157 1:0.77777778 3:0.66666667 4:1 5:0.5 6:0.625 7:1 9:0.5 10:0.42278425 
429.564345625034 1:1 3:0.66666667 5:1 6:0.375 7:1 8:1 9:1 10:0.45660851 
-11.44598041027524 1:0.16666667 4:1 5:1 6:0.375 9:1 10:0.099075218 
-2048 1:0.11111111 3:0.66666667 4:1 5:0.5 6:0.625 9:1 10:0.19266062 
-184.0631714347804 1:0.16666667 2:1 3:0.66666667 4:1 5:0.5 6:0.625 7:1 8:1 10:0.42293991 
-812.5356110496475 2:1 3:1 4:1 5:0.5 6:0.5 9:0.5 10:0.16825884 
-101.2991185509357 1:0.61111111 3:0.33333333 4:1 5:1 6:0.5 7:1 8:1 10:0.61218839 
-451.1727825413209 1:0.77777778 2:1 3:0.66666667 4:1 5:1 6:0.125 7:1 9:0.5 10:0.59926773 
-532.5127528915346 1:1 3:0.33333333 4:1 5:0.5 6:0.875 9:1 10:0.40317491 
-171.9422699975293 1:0.055555556 2:1 3:0.66666667 5:1 6:0.625 8:1 10:0.18321119 
-306.7008014698074 1:0.27777778 2:1 3:0.33333333 5:0.5 6:0.75 8:1 9:0.5 10:0.24695563 
-1003.981783224261 1:0.66666667 2:1 4:1 5:1 6:0.5 7:1 9:0.5 10:0.24717176 
-23.43591123793711 1:0.11111111 3:1 4:1 5:1 6:0.75 7:1 10:0.44883608 
-375.4611442696032 1:0.33333333 3:1 4:1 6:0.875 8:1 9:0.5 10:0.34393753 
-316.9846833157523 1:0.61111111 2:1 3:0.66666667 4:1 5:0.5 6:0.5 9:0.5 10:0.50131335 
-534.9692276598773 1:0.33333333 2:1 3:0.33333333 4:1 5:1 6:0.75 7:1 8:1 9:1 10:0.43018052 
-335.6272625919059 1:0.055555556 3:0.66666667 4:1 7:1 9:0.5 10:0.09592673 
-50.92067630188578 3:1 6:0.375 7:1 8:1 10:0.34210251 
-437.4783698824377 1:0.16666667 3:0.66666667 4:1 6:0.25 7:1 10:0.10187601 
-60.02651878067876 1:0.94444444 3:0.66666667 4:1 5:0.5 6:0.375 7:1 8:1 9:0.5 10:0.52328545 
-88.8929651230376 1:0.61111111 2:1 3:0.33333333 5:1 6:0.875 8:1 10:0.087968486 
-35.85795693622162 1:0.77777778 2:1 3:1 4:1 5:0.5 6:1 7:1 9:1 10:0.57412165 
-673.9850343722463 1:0.94444444 2:1 3:0.33333333 4:1 5:1 6:0.75 9:0.5 10:0.47659301 
-1681.28635725035 1:0.61111111 2:1 3:0.33333333 5:0.5 10:0.26109442 
-104.1259027578865 1:0.38888889 3:1 4:1 6:0.125 10:0.47794186 
-190.8030593963341 1:0.16666667 2:1 3:0.66666667 4:1 6:0.625 7:1 9:1 10:0.38550587 
-64.19196073616568 1:0.94444444 2:1 3:0.66666667 4:1 6:0.75 10:0.14429417 
-223.788278499988 1:0.38888889 3:1 6:0.625 10:0.031583329 
-138.4787033776757 1:0.055555556 2:1 3:1 4:1 6:0.25 7:1 8:1 9:1 10:0.23055007 
-859.5429604618063 1:0.94444444 3:1 4:1 5:1 6:0.75 7:1 8:1 9:0.5 10:0.49785667 
-276.2871510134557 1:0.83333333 2:1 3:1 5:1 6:0.5 10:0.44038208 
-151.8392826846216 1:0.11111111 3:0.66666667 4:1 5:0.5 6:0.625 7:1 9:0.5 10:0.4142598 
-188.9789926137925 1:0.83333333 3:0.33333333 4:1 6:0.25 7:1 8:1 9:0.5 10:0.10865758 
-517.4578335433299 1:0.27777778 2:1 3:0.66666667 4:1 5:1 6:0.375 7:1 8:1 9:0.5 10:0.50610744 
-71.70156982338915 1:0.44444444 5:0.5 6:0.5 8:1 10:0.28114858 
-59.71372250442904 1:0.55555556 3:0.66666667 4:1 6:0.5 7:1 9:1 
-503.4534062440941 1:0.72222222 2:1 3:0.66666667 5:0.5 6:1 7:1 9:0.5 10:0.23360563 
-53.95383842773734 1:1 3:1 5:0.5 6:0.625 10:0.22505776 
-372.4159667168917 1:1 2:1 3:0.66666667 4:1 5:0.5 6:1 8:1 9:1 10:0.48752099 
-238.5944229538181 1:0.55555556 3:0.66666667 4:1 6:0.875 9:1 10:0.12518713 
-636.9714370051593 1:0.61111111 2:1 3:0.33333333 5:1 9:0.5 10:0.37142101 
-378.2473851882109 1:0.55555556 3:0.33333333 4:1 5:1 6:0.875 7:1 9:0.5 10:0.37740165 
-2048 1:0.72222222 2:1 3:0.66666667 4:1 5:1 6:0.375 8:1 10:0.44479511 
-703.1588172517264 1:0.11111111 3:0.66666667 4:1 5:1 8:1 9:0.5 10:0.47555101 
-549.0515188904417 1:0.22222222 2:1 3:1 4:1 5:0.5 6:0.625 7:1 8:1 10:0.50974559 
-127.8635614554995 1:0.5 3:0.66666667 4:1 5:1 6:0.125 10:0.53435109 
-558.0660114975163 1:0.61111111 2:1 3:0.66666667 6:0.25 7:1 8:1 10:0.047342554 
-612.4240337139037 1:0.33333333 2:1 3:0.66666667 4:1 6:0.25 7:1 9:1 10:0.46761845 
-23.07467034389051 1:0.22222222 2:1 3:1 4:1 5:0.5 6:1 7:1 8:1 10:0.29465289 
-2048 1:0.5 3:0.66666667 5:0.5 6:0.25 9:1 10:0.25318385 
-341.4166037041955 1:0.44444444 3:0.66666667 5:1 7:1 8:1 9:1 10:0.56603519 
-34.66472578172593 1:0.94444444 2:1 3:0.66666667 4:1 6:0.125 7:1 8:1 10:0.19966761 
-695.9806337862736 1:0.61111111 3:1 4:1 5:0.5 6:1 9:0.5 10:0.62428137 
-1762.46179199928 1:0.66666667 3:1 4:1 5:0.5 6:0.375 9:0.5 10:0.52784821 
-767.3028126985595 1:0.33333333 2:1 3:0.66666667 4:1 6:0.875 7:1 9:0.5 10:0.29064577 
-273.3339995919537 1:0.66666667 2:1 4:1 5:1 7:1 9:1 10:0.44520224 
-608.7407717263765 1:0.61111111 2:1 3:0.66666667 5:1 6:0.625 7:1 9:0.5 10:0.22302928 
-736.1193196649639 1:0.94444444 3:0.33333333 5:1 6:1 8:1 9:0.5 10:0.070034921 
-42.51453968394228 1:0.66666667 2:1 4:1 5:1 8:1 10:0.44078498 
-421.1878721367456 1:0.94444444 2:1 3:0.66666667 4:1 6:0.625 9:0.5 10:0.27267337 
-246.6667398742094 1:0.44444444 3:0.66666667 4:1 8:1 9:0.5 10:0.36700256 
-136.729819524597 1:0.5 3:0.66666667 6:1 7:1 8:1 9:1 10:0.17290718 
-521.5114510849136 1:0.61111111 2:1 3:0.66666667 6:0.5 8:1 9:1 10:0.3440256 
-459.7814448755153 1:0.55555556 3:0.33333333 5:1 10:0.45360596 
-108.4381580781575 1:0.33333333 3:0.66666667 5:0.5 6:0.5 7:1 9:0.5 10:0.34485748 
-160.1081594059956 1:0.72222222 2:1 3:0.66666667 5:1 6:0.375 7:1 8:1 9:0.5 10:0.54591034 
