svm_type c_svc
kernel_type rbf
gamma 0.0078125
nr_class 2
total_sv 123
rho 366.46
label 1 0
probA -0.88815
probB 0.244684
nr_sv 59 64
SV
65536 1:0.66666667 2:1 3:0.66666667 6:0.625 8:1 10:0.21977039 
65536 1:0.38888889 3:1 4:1 6:0.625 9:1 10:0.35554949 
65536 1:0.61111111 2:1 3:1 6:0.25 9:1 10:0.12436123 
65536 1:0.77777778 2:1 3:0.33333333 4:1 5:0.5 6:0.125 9:0.5 10:0.40721335 
65536 1:0.055555556 3:0.66666667 4:1 7:1 8:1 10:0.28604574 
65536 1:0.55555556 3:0.66666667 4:1 6:0.5 7:1 8:1 10:0.15659083 
21013.81654582789 1:0.66666667 3:0.33333333 5:0.5 6:0.5 7:1 8:1 9:1 10:0.38824449 
65536 1:0.88888889 3:1 4:1 6:0.25 10:0.35878409 
65536 1:0.16666667 2:1 3:1 4:1 5:1 6:0.5 7:1 8:1 9:1 10:0.47866838 
61212.41440897405 3:0.33333333 4:1 5:1 6:0.25 8:1 10:0.30792856 
37837.46229716727 1:0.27777778 2:1 3:0.33333333 4:1 5:0.5 6:0.125 8:1 9:1 10:0.39204596 
13086.76206671995 1:0.66666667 3:0.66666667 6:0.875 8:1 9:1 10:0.095071035 
65536 1:0.33333333 2:1 3:1 5:0.5 6:0.75 8:1 10:0.27960275 
65536 1:0.61111111 3:0.66666667 4:1 5:1 6:1 7:1 10:0.4273855 
13894.04502825293 1:0.88888889 3:0.66666667 5:0.5 6:0.25 7:1 8:1 10:0.34077036 
65536 1:0.38888889 2:1 3:0.66666667 5:0.5 6:1 7:1 9:0.5 10:0.07488114 
8493.269159516249 1:0.61111111 2:1 3:0.66666667 5:1 6:0.875 7:1 8:1 10:0.21644722 
65536 1:0.83333333 3:0.66666667 4:1 5:1 6:0.75 8:1 9:0.5 10:0.46513598 
65536 1:0.61111111 2:1 3:0.66666667 4:1 5:1 6:0.625 7:1 8:1 10:0.42603068 
54600.51368408852 1:0.88888889 3:0.33333333 5:1 6:0.875 9:0.5 10:0.02235658 
14510.64940881336 1:0.55555556 2:1 3:0.66666667 5:0.5 7:1 8:1 9:0.5 10:0.42181227 
65536 1:0.16666667 2:1 3:0.66666667 4:1 6:0.5 7:1 9:0.5 10:0.32059376 
65536 1:0.22222222 3:0.66666667 5:1 6:0.625 7:1 8:1 9:1 10:0.46901346 
65536 1:0.61111111 3:1 4:1 5:0.5 6:0.5 7:1 8:1 9:0.5 10:0.44272292 
793.2086256533987 1:1 3:0.66666667 4:1 5:1 6:0.875 7:1 8:1 9:1 10:0.4594846 
3525.791669297124 1:0.11111111 3:0.33333333 4:1 5:1 6:0.125 7:1 9:1 10:0.11118145 
35598.46390310365 1:0.61111111 3:0.33333333 5:0.5 9:0.5 10:0.15317178 
15963.47993010488 1:0.88888889 3:1 5:1 6:0.625 7:1 8:1 9:1 10:0.40335901 
45614.318323958 1:0.27777778 2:1 3:0.66666667 4:1 5:1 6:0.25 7:1 10:0.45100516 
24187.90875100201 1:0.72222222 3:0.66666667 5:0.5 6:0.375 7:1 8:1 10:0.38514882 
65536 1:0.94444444 3:0.33333333 4:1 5:1 6:0.875 9:0.5 10:0.39338691 
65536 1:0.83333333 4:1 5:0.5 6:1 7:1 8:1 9:1 10:0.28671245 
65536 1:0.22222222 3:0.66666667 4:1 5:0.5 6:0.25 9:1 10:0.31770741 
65536 1:0.83333333 2:1 3:0.66666667 5:0.5 6:0.375 9:0.5 10:0.1844922 
57852.49748398127 1:0.44444444 3:0.66666667 4:1 5:0.5 7:1 8:1 9:0.5 10:0.4706998 
65536 1:0.72222222 2:1 3:0.66666667 5:0.5 6:1 7:1 8:1 10:0.17964639 
30626.90788501017 1:0.66666667 2:1 3:1 5:1 6:0.25 8:1 10:0.38057772 
65536 1:0.66666667 2:1 3:0.66666667 4:1 5:1 6:0.75 9:1 10:0.42694925 
10568.83674767793 1:0.055555556 3:1 4:1 5:1 6:0.25 8:1 10:0.41995141 
64269.81183276706 1:0.16666667 3:0.33333333 5:0.5 7:1 9:0.5 10:0.1988846 
63335.54962467894 1:0.88888889 2:1 3:0.33333333 4:1 5:0.5 6:0.25 7:1 9:0.5 10:0.38960624 
12485.36516206087 1:0.66666667 3:0.66666667 4:1 5:1 6:1 7:1 10:0.37806391 
11463.6187893795 1:0.66666667 2:1 4:1 5:1 6:0.125 9:0.5 10:0.18111455 
11915.23895716844 1:0.72222222 2:1 3:0.66666667 4:1 5:1 6:0.375 9:0.5 10:0.39216189 
65536 1:0.55555556 3:0.33333333 4:1 5:1 6:0.75 8:1 9:0.5 10:0.38853147 
65536 1:0.72222222 2:1 3:0.33333333 5:1 6:0.125 10:0.44747189 
65536 1:0.22222222 3:0.66666667 5:0.5 6:0.5 9:1 10:0.19933701 
65536 2:1 3:0.66666667 4:1 5:1 6:0.25 7:1 8:1 10:0.42242216 
65536 3:0.33333333 5:1 9:0.5 10:0.12518116 
160.2675680384923 2:1 3:0.66666667 4:1 5:1 6:0.5 7:1 8:1 9:0.5 10:0.27857457 
27624.55113474722 1:0.33333333 2:1 3:0.33333333 5:0.5 6:0.375 8:1 9:0.5 10:0.25695527 
34492.61038003304 1:0.66666667 2:1 3:0.33333333 4:1 5:0.5 6:1 8:1 9:1 10:0.32387833 
65536 1:0.94444444 2:1 4:1 5:1 6:0.75 7:1 9:1 10:0.41345256 
28767.60655609767 1:0.77777778 2:1 3:0.66666667 4:1 5:1 6:0.25 8:1 10:0.41465737 
65536 1:0.33333333 2:1 3:0.33333333 4:1 5:1 6:0.875 8:1 9:1 10:0.30038675 
37393.64791708769 1:0.55555556 2:1 3:0.66666667 5:0.5 6:0.25 8:1 10:0.34315688 
65536 1:0.5 3:1 4:1 5:0.5 6:0.875 9:0.5 10:0.47088086 
65536 1:0.77777778 3:0.66666667 4:1 5:0.5 6:0.625 7:1 9:0.5 10:0.42278425 
65536 1:1 3:0.66666667 5:1 6:0.375 7:1 8:1 9:1 10:0.45660851 
-65536 1:0.16666667 4:1 5:1 6:0.375 9:1 10:0.099075218 
-65536 1:0.11111111 3:0.66666667 4:1 5:0.5 6:0.625 9:1 10:0.19266062 
-65536 2:1 3:1 4:1 5:0.5 6:0.5 9:0.5 10:0.16825884 
-65536 1:0.61111111 3:0.33333333 4:1 5:1 6:0.5 7:1 8:1 10:0.61218839 
-65536 1:1 3:0.33333333 4:1 5:0.5 6:0.875 9:1 10:0.40317491 
-65536 1:0.055555556 2:1 3:0.66666667 5:1 6:0.625 8:1 10:0.18321119 
-16406.27966668559 1:0.27777778 2:1 3:0.33333333 5:0.5 6:0.75 8:1 9:0.5 10:0.24695563 
-10054.27595330138 1:1 3:0.66666667 5:1 6:0.75 7:1 10:0.31962594 
-65536 1:0.66666667 2:1 4:1 5:1 6:0.5 7:1 9:0.5 10:0.24717176 
-65536 1:0.61111111 2:1 3:0.66666667 4:1 5:0.5 6:0.5 9:0.5 10:0.50131335 
-65536 1:0.33333333 2:1 3:0.33333333 4:1 5:1 6:0.75 7:1 8:1 9:1 10:0.43018052 
-2408.224234882322 1:0.055555556 3:0.66666667 4:1 7:1 9:0.5 10:0.09592673 
-48873.04134601965 1:0.11111111 3:0.33333333 4:1 5:1 6:1 7:1 8:1 9:0.5 10:0.24768302 
-65536 1:1 2:1 3:0.66666667 4:1 5:0.5 6:0.875 7:1 9:0.5 10:0.54228373 
-50890.47968873267 3:1 6:0.375 7:1 8:1 10:0.34210251 
-65536 1:0.16666667 3:0.66666667 4:1 6:0.25 7:1 10:0.10187601 
-39231.78151392609 1:0.94444444 3:0.66666667 4:1 5:0.5 6:0.375 7:1 8:1 9:0.5 10:0.52328545 
-65536 1:0.61111111 2:1 3:0.33333333 5:1 6:0.875 8:1 10:0.087968486 
-3956.87689097826 1:0.77777778 2:1 3:1 4:1 5:0.5 6:1 7:1 9:1 10:0.57412165 
-39760.77987709023 1:0.88888889 2:1 3:1 5:0.5 6:0.125 7:1 9:1 10:0.30787083 
-65536 1:0.61111111 2:1 3:0.33333333 5:0.5 9:0.5 10:0.26869912 
-18976.27725940242 1:0.94444444 2:1 3:0.33333333 4:1 5:1 6:0.75 9:0.5 10:0.47659301 
-65536 1:0.61111111 2:1 3:0.33333333 5:0.5 10:0.26109442 
-34685.92185468991 1:0.94444444 2:1 3:0.66666667 4:1 6:0.75 10:0.14429417 
-3173.258073865255 1:0.38888889 3:1 6:0.625 10:0.031583329 
-29424.56527731563 1:0.055555556 2:1 3:1 4:1 6:0.25 7:1 8:1 9:1 10:0.23055007 
-65536 1:0.94444444 3:1 4:1 5:1 6:0.75 7:1 8:1 9:0.5 10:0.49785667 
-48179.93450465196 1:0.61111111 2:1 3:0.66666667 5:1 6:0.125 9:1 10:0.37363644 
-65536 1:0.83333333 3:0.33333333 4:1 6:0.25 7:1 8:1 9:0.5 10:0.10865758 
-65536 1:0.27777778 2:1 3:0.66666667 4:1 5:1 6:0.375 7:1 8:1 9:0.5 10:0.50610744 
-21110.08718669707 1:0.88888889 3:1 4:1 5:1 6:0.125 8:1 10:0.54032581 
-33176.61867502394 1:0.16666667 2:1 3:0.66666667 4:1 8:1 10:0.30418467 
-17371.01894000666 1:0.55555556 3:0.66666667 4:1 6:0.5 7:1 9:1 
-15374.19752043023 1:0.72222222 2:1 3:0.66666667 5:0.5 6:1 7:1 9:0.5 10:0.23360563 
-65536 1:1 3:1 5:0.5 6:0.625 10:0.22505776 
-15570.88654689151 1:0.33333333 2:1 3:0.33333333 4:1 5:1 6:0.375 7:1 10:0.51638605 
-29527.61384897932 1:0.61111111 3:0.33333333 6:0.375 7:1 8:1 10:0.052105822 
-65536 1:1 2:1 3:0.66666667 4:1 5:0.5 6:1 8:1 9:1 10:0.48752099 
-44773.35591217491 1:0.55555556 3:0.66666667 4:1 6:0.875 9:1 10:0.12518713 
-65536 1:0.55555556 3:0.33333333 4:1 5:1 6:0.875 7:1 9:0.5 10:0.37740165 
-21754.43182009578 1:0.16666667 3:1 5:0.5 6:0.75 8:1 9:0.5 10:0.50290288 
-65536 1:0.72222222 2:1 3:0.66666667 4:1 5:1 6:0.375 8:1 10:0.44479511 
-65536 1:0.11111111 3:0.66666667 4:1 5:1 8:1 9:0.5 10:0.47555101 
-48443.83398469232 1:0.22222222 2:1 3:1 4:1 5:0.5 6:0.625 7:1 8:1 10:0.50974559 
-65536 1:0.5 3:0.66666667 4:1 5:1 6:0.125 10:0.53435109 
-65536 1:0.61111111 2:1 3:0.66666667 6:0.25 7:1 8:1 10:0.047342554 
-9979.035845991111 1:0.66666667 3:1 4:1 5:0.5 6:0.875 8:1 9:0.5 10:0.54915003 
-10830.93245089453 1:0.55555556 3:0.33333333 5:1 6:0.375 9:1 10:0.30698117 
-34099.62870078841 1:0.44444444 3:0.66666667 5:0.5 6:0.75 9:1 10:0.34080702 
-26203.13856344175 1:0.22222222 2:1 3:1 4:1 5:0.5 6:1 7:1 8:1 10:0.29465289 
-65536 1:0.5 3:0.66666667 5:0.5 6:0.25 9:1 10:0.25318385 
-65536 1:0.44444444 3:0.66666667 5:1 7:1 8:1 9:1 10:0.56603519 
-3129.431286750947 1:0.5 2:1 3:0.66666667 8:1 9:1 10:0.38073153 
-31129.90362443302 1:0.61111111 2:1 3:0.33333333 5:1 6:1 8:1 9:1 10:0.41762819 
-51043.08664997 1:0.66666667 3:1 4:1 5:0.5 6:0.375 9:0.5 10:0.52784821 
-17732.73001993599 1:0.66666667 2:1 4:1 5:1 7:1 9:1 10:0.44520224 
-65536 1:0.61111111 2:1 3:0.66666667 5:1 6:0.625 7:1 9:0.5 10:0.22302928 
-65536 1:0.94444444 3:0.33333333 5:1 6:1 8:1 9:0.5 10:0.070034921 
-4997.795063445979 1:0.66666667 2:1 4:1 5:1 8:1 10:0.44078498 
-42919.47303169221 1:0.44444444 3:0.66666667 4:1 8:1 9:0.5 10:0.36700256 
-16560.41917710876 1:0.5 3:0.66666667 6:1 7:1 8:1 9:1 10:0.17290718 
-30611.29885022249 1:0.61111111 2:1 3:0.66666667 6:0.5 8:1 9:1 10:0.3440256 
-65536 1:0.33333333 3:0.66666667 5:0.5 6:0.5 7:1 9:0.5 10:0.34485748 
-65536 1:0.5 3:0.66666667 4:1 5:1 6:0.625 7:1 8:1 9:0.5 10:0.55174089 
